// Created by mobvoi on 18-7-12.
// Author: nanli@mobvoi.com (linan)
// mic num: 2, weight len: 161, weight num: 2
45, -45
//45
//real
0.5
0.49934
0.49735
0.49405
0.48943
0.48352
0.47633
0.46787
0.45818
0.44727
0.43517
0.42192
0.40755
0.39211
0.37562
0.35814
0.3397
0.32037
0.30019
0.27921
0.25749
0.23509
0.21207
0.18848
0.1644
0.13988
0.11499
0.08979
0.064356
0.038751
0.013043
-0.012699
-0.038408
-0.064014
-0.089452
-0.11465
-0.13955
-0.16407
-0.18817
-0.21176
-0.23479
-0.2572
-0.27893
-0.29991
-0.32011
-0.33945
-0.35789
-0.37539
-0.39189
-0.40735
-0.42174
-0.435
-0.44711
-0.45804
-0.46775
-0.47622
-0.48343
-0.48936
-0.49399
-0.49732
-0.49932
-0.5
-0.49935
-0.49739
-0.4941
-0.4895
-0.48361
-0.47643
-0.46799
-0.45831
-0.44742
-0.43534
-0.42211
-0.40775
-0.39232
-0.37585
-0.35838
-0.33996
-0.32063
-0.30046
-0.2795
-0.25779
-0.2354
-0.21238
-0.1888
-0.16472
-0.14021
-0.11532
-0.090129
-0.064697
-0.039094
-0.013387
0.012355
0.038064
0.063673
0.089113
0.11432
0.13922
0.16375
0.18785
0.21145
0.23449
0.2569
0.27864
0.29964
0.31984
0.3392
0.35765
0.37516
0.39168
0.40715
0.42155
0.43483
0.44696
0.4579
0.46763
0.47612
0.48335
0.48929
0.49394
0.49728
0.4993
0.5
0.49937
0.49742
0.49415
0.48957
0.4837
0.47654
0.46811
0.45845
0.44757
0.43551
0.42229
0.40795
0.39253
0.37607
0.35862
0.34021
0.3209
0.30074
0.27978
0.25808
0.2357
0.21269
0.18912
0.16505
0.14054
0.11566
0.090468
0.065039
0.039437
0.013731
-0.012011
-0.037721
-0.063332
-0.088774
-0.11398
-0.13889
-0.16342
-0.18753
0.5
0.49934
0.49735
0.49405
0.48943
0.48352
0.47633
0.46787
0.45818
0.44727
0.43517
0.42192
0.40755
0.39211
0.37562
0.35814
0.3397
0.32037
0.30019
0.27921
0.25749
0.23509
0.21207
0.18848
0.1644
0.13988
0.11499
0.08979
0.064356
0.038751
0.013043
-0.012699
-0.038408
-0.064014
-0.089452
-0.11465
-0.13955
-0.16407
-0.18817
-0.21176
-0.23479
-0.2572
-0.27893
-0.29991
-0.32011
-0.33945
-0.35789
-0.37539
-0.39189
-0.40735
-0.42174
-0.435
-0.44711
-0.45804
-0.46775
-0.47622
-0.48343
-0.48936
-0.49399
-0.49732
-0.49932
-0.5
-0.49935
-0.49739
-0.4941
-0.4895
-0.48361
-0.47643
-0.46799
-0.45831
-0.44742
-0.43534
-0.42211
-0.40775
-0.39232
-0.37585
-0.35838
-0.33996
-0.32063
-0.30046
-0.2795
-0.25779
-0.2354
-0.21238
-0.1888
-0.16472
-0.14021
-0.11532
-0.090129
-0.064697
-0.039094
-0.013387
0.012355
0.038064
0.063673
0.089113
0.11432
0.13922
0.16375
0.18785
0.21145
0.23449
0.2569
0.27864
0.29964
0.31984
0.3392
0.35765
0.37516
0.39168
0.40715
0.42155
0.43483
0.44696
0.4579
0.46763
0.47612
0.48335
0.48929
0.49394
0.49728
0.4993
0.5
0.49937
0.49742
0.49415
0.48957
0.4837
0.47654
0.46811
0.45845
0.44757
0.43551
0.42229
0.40795
0.39253
0.37607
0.35862
0.34021
0.3209
0.30074
0.27978
0.25808
0.2357
0.21269
0.18912
0.16505
0.14054
0.11566
0.090468
0.065039
0.039437
0.013731
-0.012011
-0.037721
-0.063332
-0.088774
-0.11398
-0.13889
-0.16342
-0.18753
//image
0
0.025734
0.051399
0.076929
0.10225
0.12731
0.15203
0.17634
0.20019
0.2235
0.24622
0.2683
0.28966
0.31025
0.33002
0.34891
0.36688
0.38388
0.39986
0.41478
0.4286
0.44128
0.4528
0.46311
0.4722
0.48004
0.4866
0.49187
0.49584
0.4985
0.49983
0.49984
0.49852
0.49589
0.49193
0.48668
0.48013
0.47231
0.46324
0.45294
0.44145
0.42878
0.41497
0.40007
0.3841
0.36712
0.34916
0.33028
0.31052
0.28994
0.26859
0.24652
0.22381
0.2005
0.17666
0.15235
0.12764
0.10259
0.077269
0.051742
0.026078
0.00034425
-0.02539
-0.051057
-0.076588
-0.10192
-0.12698
-0.1517
-0.17602
-0.19987
-0.22319
-0.24593
-0.26801
-0.28937
-0.30998
-0.32976
-0.34866
-0.36665
-0.38366
-0.39965
-0.41459
-0.42842
-0.44112
-0.45265
-0.46298
-0.47209
-0.47994
-0.48652
-0.49181
-0.4958
-0.49847
-0.49982
-0.49985
-0.49855
-0.49593
-0.49199
-0.48676
-0.48023
-0.47243
-0.46337
-0.45309
-0.44161
-0.42895
-0.41516
-0.40027
-0.38432
-0.36735
-0.3494
-0.33053
-0.31079
-0.29022
-0.26888
-0.24682
-0.22412
-0.20082
-0.17698
-0.15268
-0.12797
-0.10293
-0.077609
-0.052084
-0.026421
-0.0006885
0.025046
0.050714
0.076248
0.10158
0.12664
0.15137
0.17569
0.19955
0.22289
0.24563
0.26771
0.28909
0.30971
0.3295
0.34842
0.36641
0.38344
0.39944
0.41439
0.42824
0.44096
0.45251
0.46285
0.47197
0.47984
0.48644
0.49175
0.49575
0.49844
0.49981
0.49986
0.49858
0.49597
0.49206
0.48683
0.48032
0.47254
0.4635
0
-0.025734
-0.051399
-0.076929
-0.10225
-0.12731
-0.15203
-0.17634
-0.20019
-0.2235
-0.24622
-0.2683
-0.28966
-0.31025
-0.33002
-0.34891
-0.36688
-0.38388
-0.39986
-0.41478
-0.4286
-0.44128
-0.4528
-0.46311
-0.4722
-0.48004
-0.4866
-0.49187
-0.49584
-0.4985
-0.49983
-0.49984
-0.49852
-0.49589
-0.49193
-0.48668
-0.48013
-0.47231
-0.46324
-0.45294
-0.44145
-0.42878
-0.41497
-0.40007
-0.3841
-0.36712
-0.34916
-0.33028
-0.31052
-0.28994
-0.26859
-0.24652
-0.22381
-0.2005
-0.17666
-0.15235
-0.12764
-0.10259
-0.077269
-0.051742
-0.026078
-0.00034425
0.02539
0.051057
0.076588
0.10192
0.12698
0.1517
0.17602
0.19987
0.22319
0.24593
0.26801
0.28937
0.30998
0.32976
0.34866
0.36665
0.38366
0.39965
0.41459
0.42842
0.44112
0.45265
0.46298
0.47209
0.47994
0.48652
0.49181
0.4958
0.49847
0.49982
0.49985
0.49855
0.49593
0.49199
0.48676
0.48023
0.47243
0.46337
0.45309
0.44161
0.42895
0.41516
0.40027
0.38432
0.36735
0.3494
0.33053
0.31079
0.29022
0.26888
0.24682
0.22412
0.20082
0.17698
0.15268
0.12797
0.10293
0.077609
0.052084
0.026421
0.0006885
-0.025046
-0.050714
-0.076248
-0.10158
-0.12664
-0.15137
-0.17569
-0.19955
-0.22289
-0.24563
-0.26771
-0.28909
-0.30971
-0.3295
-0.34842
-0.36641
-0.38344
-0.39944
-0.41439
-0.42824
-0.44096
-0.45251
-0.46285
-0.47197
-0.47984
-0.48644
-0.49175
-0.49575
-0.49844
-0.49981
-0.49986
-0.49858
-0.49597
-0.49206
-0.48683
-0.48032
-0.47254
-0.4635
//-45
//real
0.5
0.49934
0.49735
0.49405
0.48943
0.48352
0.47633
0.46787
0.45818
0.44727
0.43517
0.42192
0.40755
0.39211
0.37562
0.35814
0.3397
0.32037
0.30019
0.27921
0.25749
0.23509
0.21207
0.18848
0.1644
0.13988
0.11499
0.08979
0.064356
0.038751
0.013043
-0.012699
-0.038408
-0.064014
-0.089452
-0.11465
-0.13955
-0.16407
-0.18817
-0.21176
-0.23479
-0.2572
-0.27893
-0.29991
-0.32011
-0.33945
-0.35789
-0.37539
-0.39189
-0.40735
-0.42174
-0.435
-0.44711
-0.45804
-0.46775
-0.47622
-0.48343
-0.48936
-0.49399
-0.49732
-0.49932
-0.5
-0.49935
-0.49739
-0.4941
-0.4895
-0.48361
-0.47643
-0.46799
-0.45831
-0.44742
-0.43534
-0.42211
-0.40775
-0.39232
-0.37585
-0.35838
-0.33996
-0.32063
-0.30046
-0.2795
-0.25779
-0.2354
-0.21238
-0.1888
-0.16472
-0.14021
-0.11532
-0.090129
-0.064697
-0.039094
-0.013387
0.012355
0.038064
0.063673
0.089113
0.11432
0.13922
0.16375
0.18785
0.21145
0.23449
0.2569
0.27864
0.29964
0.31984
0.3392
0.35765
0.37516
0.39168
0.40715
0.42155
0.43483
0.44696
0.4579
0.46763
0.47612
0.48335
0.48929
0.49394
0.49728
0.4993
0.5
0.49937
0.49742
0.49415
0.48957
0.4837
0.47654
0.46811
0.45845
0.44757
0.43551
0.42229
0.40795
0.39253
0.37607
0.35862
0.34021
0.3209
0.30074
0.27978
0.25808
0.2357
0.21269
0.18912
0.16505
0.14054
0.11566
0.090468
0.065039
0.039437
0.013731
-0.012011
-0.037721
-0.063332
-0.088774
-0.11398
-0.13889
-0.16342
-0.18753
0.5
0.49934
0.49735
0.49405
0.48943
0.48352
0.47633
0.46787
0.45818
0.44727
0.43517
0.42192
0.40755
0.39211
0.37562
0.35814
0.3397
0.32037
0.30019
0.27921
0.25749
0.23509
0.21207
0.18848
0.1644
0.13988
0.11499
0.08979
0.064356
0.038751
0.013043
-0.012699
-0.038408
-0.064014
-0.089452
-0.11465
-0.13955
-0.16407
-0.18817
-0.21176
-0.23479
-0.2572
-0.27893
-0.29991
-0.32011
-0.33945
-0.35789
-0.37539
-0.39189
-0.40735
-0.42174
-0.435
-0.44711
-0.45804
-0.46775
-0.47622
-0.48343
-0.48936
-0.49399
-0.49732
-0.49932
-0.5
-0.49935
-0.49739
-0.4941
-0.4895
-0.48361
-0.47643
-0.46799
-0.45831
-0.44742
-0.43534
-0.42211
-0.40775
-0.39232
-0.37585
-0.35838
-0.33996
-0.32063
-0.30046
-0.2795
-0.25779
-0.2354
-0.21238
-0.1888
-0.16472
-0.14021
-0.11532
-0.090129
-0.064697
-0.039094
-0.013387
0.012355
0.038064
0.063673
0.089113
0.11432
0.13922
0.16375
0.18785
0.21145
0.23449
0.2569
0.27864
0.29964
0.31984
0.3392
0.35765
0.37516
0.39168
0.40715
0.42155
0.43483
0.44696
0.4579
0.46763
0.47612
0.48335
0.48929
0.49394
0.49728
0.4993
0.5
0.49937
0.49742
0.49415
0.48957
0.4837
0.47654
0.46811
0.45845
0.44757
0.43551
0.42229
0.40795
0.39253
0.37607
0.35862
0.34021
0.3209
0.30074
0.27978
0.25808
0.2357
0.21269
0.18912
0.16505
0.14054
0.11566
0.090468
0.065039
0.039437
0.013731
-0.012011
-0.037721
-0.063332
-0.088774
-0.11398
-0.13889
-0.16342
-0.18753
//image
0
-0.025734
-0.051399
-0.076929
-0.10225
-0.12731
-0.15203
-0.17634
-0.20019
-0.2235
-0.24622
-0.2683
-0.28966
-0.31025
-0.33002
-0.34891
-0.36688
-0.38388
-0.39986
-0.41478
-0.4286
-0.44128
-0.4528
-0.46311
-0.4722
-0.48004
-0.4866
-0.49187
-0.49584
-0.4985
-0.49983
-0.49984
-0.49852
-0.49589
-0.49193
-0.48668
-0.48013
-0.47231
-0.46324
-0.45294
-0.44145
-0.42878
-0.41497
-0.40007
-0.3841
-0.36712
-0.34916
-0.33028
-0.31052
-0.28994
-0.26859
-0.24652
-0.22381
-0.2005
-0.17666
-0.15235
-0.12764
-0.10259
-0.077269
-0.051742
-0.026078
-0.00034425
0.02539
0.051057
0.076588
0.10192
0.12698
0.1517
0.17602
0.19987
0.22319
0.24593
0.26801
0.28937
0.30998
0.32976
0.34866
0.36665
0.38366
0.39965
0.41459
0.42842
0.44112
0.45265
0.46298
0.47209
0.47994
0.48652
0.49181
0.4958
0.49847
0.49982
0.49985
0.49855
0.49593
0.49199
0.48676
0.48023
0.47243
0.46337
0.45309
0.44161
0.42895
0.41516
0.40027
0.38432
0.36735
0.3494
0.33053
0.31079
0.29022
0.26888
0.24682
0.22412
0.20082
0.17698
0.15268
0.12797
0.10293
0.077609
0.052084
0.026421
0.0006885
-0.025046
-0.050714
-0.076248
-0.10158
-0.12664
-0.15137
-0.17569
-0.19955
-0.22289
-0.24563
-0.26771
-0.28909
-0.30971
-0.3295
-0.34842
-0.36641
-0.38344
-0.39944
-0.41439
-0.42824
-0.44096
-0.45251
-0.46285
-0.47197
-0.47984
-0.48644
-0.49175
-0.49575
-0.49844
-0.49981
-0.49986
-0.49858
-0.49597
-0.49206
-0.48683
-0.48032
-0.47254
-0.4635
0
0.025734
0.051399
0.076929
0.10225
0.12731
0.15203
0.17634
0.20019
0.2235
0.24622
0.2683
0.28966
0.31025
0.33002
0.34891
0.36688
0.38388
0.39986
0.41478
0.4286
0.44128
0.4528
0.46311
0.4722
0.48004
0.4866
0.49187
0.49584
0.4985
0.49983
0.49984
0.49852
0.49589
0.49193
0.48668
0.48013
0.47231
0.46324
0.45294
0.44145
0.42878
0.41497
0.40007
0.3841
0.36712
0.34916
0.33028
0.31052
0.28994
0.26859
0.24652
0.22381
0.2005
0.17666
0.15235
0.12764
0.10259
0.077269
0.051742
0.026078
0.00034425
-0.02539
-0.051057
-0.076588
-0.10192
-0.12698
-0.1517
-0.17602
-0.19987
-0.22319
-0.24593
-0.26801
-0.28937
-0.30998
-0.32976
-0.34866
-0.36665
-0.38366
-0.39965
-0.41459
-0.42842
-0.44112
-0.45265
-0.46298
-0.47209
-0.47994
-0.48652
-0.49181
-0.4958
-0.49847
-0.49982
-0.49985
-0.49855
-0.49593
-0.49199
-0.48676
-0.48023
-0.47243
-0.46337
-0.45309
-0.44161
-0.42895
-0.41516
-0.40027
-0.38432
-0.36735
-0.3494
-0.33053
-0.31079
-0.29022
-0.26888
-0.24682
-0.22412
-0.20082
-0.17698
-0.15268
-0.12797
-0.10293
-0.077609
-0.052084
-0.026421
-0.0006885
0.025046
0.050714
0.076248
0.10158
0.12664
0.15137
0.17569
0.19955
0.22289
0.24563
0.26771
0.28909
0.30971
0.3295
0.34842
0.36641
0.38344
0.39944
0.41439
0.42824
0.44096
0.45251
0.46285
0.47197
0.47984
0.48644
0.49175
0.49575
0.49844
0.49981
0.49986
0.49858
0.49597
0.49206
0.48683
0.48032
0.47254
0.4635
